{"lr":0.001,"gamma":0.9,"inNodes":11,"h1Nodes":16,"h2Nodes":16,"outNodes":3,"W1":{"mathjs":"DenseMatrix","data":[[0.7955039263004233,0.6769580464931726,-0.8807608583960217,-0.6524480656140268,0.6580038587496547,0.12422811994525883,0.18616200696532018,-0.8215720309693925,0.12635650556454162,-0.004217552580406819,0.9031538345042075],[0.5217520057232078,0.7147731732065489,0.03649225542028045,-0.1931777282077506,0.545736869902878,0.1251351323578081,-0.7760343262040117,0.1289525859176885,0.8485704699254369,0.03220130195568471,-0.260911173332653],[0.6904092158142987,-0.709954551434539,-0.7756850145848937,0.4422828047285261,0.7964697972497432,0.35424910556993605,0.7502679334258752,-0.4266317108480549,-0.7854640294021153,0.3772179425949689,0.7131939964931109],[0.7227901257861259,-0.8620013227817789,0.5722110426213013,-0.20788146844723068,0.2863040209906454,0.6764358204870463,-0.7171567950473601,0.3109583716440708,0.0751281030395731,0.6385594114385342,0.6299017274179617],[-0.582437344520891,-0.0927871459176779,-0.06460884094320692,0.3807873659684379,0.23118615609401694,0.8617832896581843,-0.8826794019046762,-0.8770218377189811,0.7650388554261207,0.848246355670244,-0.968242269649568],[0.6552504775336027,-0.9165543280114237,0.21698786046290236,-0.46396980557003475,0.5299250820098744,0.6459827004123707,0.617986735962788,0.38613558043347174,0.3682263782259448,-0.6925948436214676,-0.2502561202908075],[0.8016671963657066,0.6849316619139518,-0.34028333460712096,-0.5489875345044016,-0.4223096742973186,-0.3234941610538335,-0.4711248745372444,0.14967966889544218,-0.1674062195765516,0.5875470418778495,-0.7224669831303823],[-0.78732064960098,0.8179067781400601,0.5118996986777125,-0.9182347726769301,1.1033504531473932,0.6178460138807409,-0.7884216694609895,0.5959758863804128,-0.24703350097113097,-0.5180802732096821,-0.9206151868948287],[0.8341812819945744,0.9482758386976868,-0.5786661933499785,-0.1974188388278086,0.07057679403777734,0.9676447706395164,-0.32929801168826467,-0.15619239883126074,-0.06142716069753915,0.4396116264037911,0.36638231152772266],[-0.07757529771439195,0.3860335047183835,0.460865473157563,-0.2703092408631367,0.06102466313897251,1.249857394314786,-0.2666137668562311,-0.31284104553397346,1.1058849198383396,0.05210856472563026,0.8462779333126431],[-0.3797284450464898,0.49254183440916005,-0.2977814149763666,-0.11349810808081684,-0.9533777083409566,0.6381504006419135,0.9318393018251907,0.47418371891273725,0.5648566580134239,-0.14535848326529205,-0.9189643047673648],[0.9944460394828282,0.45816937955610376,0.6485046011851904,0.0004227795176060707,-0.11004377145690691,-0.5051774669399698,0.7231139778058484,-0.9758783325379571,0.24524115226572105,0.32700688836939945,0.010228645473433847],[0.0828913148874647,-0.029450919055875924,0.38652244819920245,-0.5728774876425005,-0.3102884967813777,-0.024929277572400807,-0.38886364230288145,-0.02752223019268645,-0.9345291305615939,-0.9677444619282025,-0.9073608905464539],[0.7963715241648383,0.23341337619769048,-0.984162471763386,-0.8356761457168412,1.012954984387663,-0.5040665128316256,0.5250275707350336,0.6540407869588847,-0.2154325807523911,0.2061055772799599,0.8274783863565879],[-0.7722901313711626,-0.3826835307565219,0.2831412424843002,0.592468382593188,0.594212410877719,0.20593630300453156,0.5371732611992119,0.765989324016355,0.8032088868564073,0.6062986350434036,-0.19563814481663938],[-0.6005599961417379,-0.9324212925599676,0.7726009316965609,-0.027545899628288125,0.26005569147032864,-0.9177901604086277,0.7427706572159036,0.42912900670364273,-0.9309700787192619,0.002745132855523579,-0.26654316553757595]],"size":[16,11]},"b1":{"mathjs":"DenseMatrix","data":[0.059313088889251346,-0.053473007225235666,0.08054552815870639,-0.35497307659714816,-0.1720696202147329,0.038393185318586986,0.029680144342363803,0.1310858647177872,0.022872949524673912,0.24793917436605595,-0.10935672539974223,-0.22110169204334082,-0.09121426717076785,0.010024568995198742,0.36910342695904846,-0.04057191521574415],"size":[16]},"W2":{"mathjs":"DenseMatrix","data":[[-0.8842451819259776,0.45558509660820684,0.13611969002919228,-0.525581895636233,0.6327685331251255,0.5120385138974212,0.45371560057269533,-0.06533804165190782,-0.21879742555475604,-0.043043745982272695,-0.9432154876143845,-0.4760037860253598,0.09429096803014717,-0.007811600929589612,-0.17268343552506485,0.3191625704374879],[0.9844185474001128,-0.8060332279775193,-0.43134621939612316,0.12679940253056482,0.6463321197319181,-0.3226386297338533,-0.8573444972403185,-0.9500333196481964,-0.8851460280617012,-0.9441535449847782,-0.02728755770545538,0.28109595348341426,-0.48623353787134516,-0.7438169635294444,0.38985323064655397,0.5595653210676732],[-0.2557784253245159,0.13485274948169734,-0.42835809389043983,0.5895079102620242,-0.6830311724107723,0.07454231887334137,0.05757120606119283,-0.29155661033055713,0.9046097957677389,-0.879185996658364,-0.36322854566236734,0.24937740779151768,-0.6709544664081455,0.6878276001844923,0.745648642030201,-0.8037349003923019],[-0.48429329078281413,-0.06923169887375663,-0.0036408811403972896,-0.5446791808836959,-0.38494278161079665,0.013995841874707024,0.7798458098451215,0.211270066788046,-0.4546703825370591,0.2939147641155016,0.17303409325613997,-0.9272029898261076,0.7275928248894507,-0.765047623664849,-0.6575314290148182,-0.5046949974910022],[0.15507068150256262,-0.5045561236637546,0.24595812016295573,-0.9923689854768393,-0.7365896670782207,0.3879634978172203,-0.922742843875955,0.7961734804433956,-0.7156718952148153,0.6048134167537262,0.12097991050081183,0.4464350718949154,-0.8105990630099933,-0.345628726376433,0.7995320661675938,0.4491439558140163],[-0.9109125051580299,-0.6812305872824629,-0.7709523256157208,0.1711471963910825,-0.42288854166888235,-0.030142401760456763,0.30489119687603233,-0.09161688176193888,0.7330920441182417,0.507165213408919,0.5647400242121002,0.17959996133987188,-0.8410484803524877,-0.40557948459887533,-0.26888227619663185,-0.4774930072412849],[-0.41044470106422987,-0.6352203643447412,-0.018020636465785517,0.4659403192057921,0.010269826429396566,0.39477660156870026,0.062011756570071415,-0.7416780163263478,-0.1954542506041154,0.7185111975689288,-0.8141736242576487,0.6083312934761997,0.9825999314124366,-0.472534011203713,0.5288758270707404,0.35042514703698185],[-0.7995386724795782,0.15242471168941826,-0.22540313591028743,-0.5511078959739099,-0.6218612650589469,-0.9704429487100533,0.014419371270483927,0.9674759347141857,-0.5766998320775443,-0.7920683011895263,-0.27034966090420787,0.5885980515166758,0.03398393358776136,-0.6807980978119788,0.04657786229594906,0.9315735739995988],[-0.9926993943385036,-0.815893960805397,-0.4086914405436974,0.5292328412463199,-0.2345578711995777,0.409503450389395,-0.3966306478228943,0.06844321167356635,0.023421859817973078,0.012985430243866352,-0.7098224939294914,0.2698940271484077,0.7053954304409179,0.22349724613611752,-0.5486116066357541,-0.36428960698822005],[-0.45019252090869755,-0.7330555721180189,0.06127749756381488,-0.18231477860787632,0.069662533758743,-0.25976735572044346,0.1292027311923459,0.4692679150752651,0.9933420002798131,0.42236137690425923,-0.2165600576714769,-0.22812884442919526,-0.6842935301019173,0.6339924476887069,0.3294543644217822,0.523454715653182],[0.26010682117430867,0.4656256718388446,0.3865957576474263,0.8500111063648639,0.21324114156809248,-0.38953901141427744,0.6010409754194667,-0.9272382719559631,-0.20782702302684242,-0.32597218313075327,-0.3383039423868004,-0.24475426074475715,0.7971689878106051,0.21654880251296676,-0.7082143105095985,-0.0664164073940407],[0.593293944359165,0.5339780532245263,0.07339780507378275,-0.8209810652238503,0.611985999285586,0.5028402413191757,0.5227974970254762,-0.4530631124164888,0.13180507248886328,0.9279346730118817,-0.6038993134149261,0.7471304733807014,-0.7716628619447843,0.6898614954894191,0.8949650499532394,0.45545433743659797],[0.9145184200259722,-0.8759674329680982,0.8121936617097942,0.8932552858144543,-0.9398287821965072,0.06609616774020478,0.04318557392723642,0.5665769042981066,0.29344119472585106,0.5034939603203817,0.24118115695931325,-0.4827841821419982,-0.4583317592097103,0.8555393243320586,-0.21570387705144758,-0.7804680732114614],[1.01892948320899,0.13189536544390099,0.19739957550336998,-0.10849107263699283,-0.22936934662380237,0.8214494858456959,-0.13768379861378643,-0.18566483179305115,0.38711087361649366,-0.4260896357945443,-0.916780720226729,0.3683302115694195,0.231591171140353,-0.3836089343341505,-0.2660737116392244,-0.42725297892158576],[0.6788461609773007,-0.8557257356379826,-0.6551844323377796,0.3452737356825456,0.040462228830270425,0.5927627002360055,0.8164130384146066,0.645837200185539,0.2345007453829576,-0.9685653611047941,0.13251680514725145,0.21483475978837419,-0.8122625585243635,0.10588478978370826,-0.35654295588933216,-0.17498274914581705],[0.3476088688059154,0.30577488946247494,0.5055452924682231,0.2052344763364098,-0.6459674077101737,0.34027255989208266,-0.1893981932116055,-0.04887131349921974,0.9262019587411492,0.33341168690992645,-0.6923208558947077,0.865813895358209,0.33559311440965606,-0.6508462683417855,0.21301998073351247,-0.4420948185156899]],"size":[16,16]},"b2":{"mathjs":"DenseMatrix","data":[-0.04866320425246571,-0.0011026613888668094,-0.07895332637967402,-0.014441661646203075,0.04809636677902663,-0.03462600142304907,0.08465403322406183,-0.0011849532318537206,0.0004960954729256483,0.049765594164249326,-0.07914834038124086,0.021176790859866165,0.05252351025222836,0.028403417752071704,-0.0024995376821469835,0.04732678579364539],"size":[16]},"W3":{"mathjs":"DenseMatrix","data":[[-0.5018361347366773,0.6067998714141881,0.028222153415580955,-0.731517135730229,-0.9503213343360531,0.6666803374414025,-0.9124777132975863,0.1274223301009607,0.3211381420712219,-0.7887315434529816,0.3032712616097315,0.05252217522356334,-0.18912510961220988,0.09549349801036851,-0.15798090694935224,-0.910203511326133],[-0.5987595089476604,0.7301422841610857,0.34285389255803705,0.8155208914423274,-0.15745321905686988,0.7673866652211814,0.1954879416910078,0.15068138356441113,0.9030617973301811,-0.4086301001182131,0.7478542978252251,-0.6749070284089906,-0.8928331084989725,-0.2800917357397731,-0.4328258007431452,0.38404573478844484],[0.7946618121399389,-0.2912706445981727,-0.6110650442665578,-0.7955726531265588,-0.14403115348174297,-0.08035807008854244,-0.9361107113681615,-0.4211379421660683,-0.07482786234571484,-0.5914652618598486,0.43956321270817933,-0.6386872895273142,0.1865242711656082,0.31537439569790937,0.5012235539277576,-0.20388926184139475]],"size":[3,16]},"b3":{"mathjs":"DenseMatrix","data":[-0.09031260894528836,-0.05161508919661682,-0.03677982727460069],"size":[3]}}